Language model created by QuickLM on Mon Apr 20 12:55:57 EDT 2020
Copyright (c) 1996-2010 Carnegie Mellon University and Alexander I. Rudnicky

The model is in standard ARPA format, designed by Doug Paul while he was at MITRE.

The code that was used to produce this language model is available in Open Source.
Please visit http://www.speech.cs.cmu.edu/tools/ for more information

The (fixed) discount mass is 0.5. The backoffs are computed using the ratio method.
This model based on a corpus of 6 sentences and 12 words

\data\
ngram 1=12
ngram 2=16
ngram 3=12

\1-grams:
-0.9031 </s> -0.3010
-0.9031 <s> -0.2430
-1.6812 BROWSER -0.2430
-1.6812 CALENDAR -0.2430
-1.6812 E-MAIL -0.2430
-1.6812 EXIT -0.2430
-1.6812 MUSIC -0.2919
-1.6812 NEW -0.2919
-1.2041 OPEN -0.2730
-1.6812 OPTIONS -0.2430
-1.6812 PLAYER -0.2430
-1.6812 SHOW -0.2919

\2-grams:
-1.0792 <s> EXIT 0.0000
-1.0792 <s> NEW 0.0000
-0.6021 <s> OPEN 0.0000
-1.0792 <s> SHOW 0.0000
-0.3010 BROWSER </s> -0.3010
-0.3010 CALENDAR </s> -0.3010
-0.3010 E-MAIL </s> -0.3010
-0.3010 EXIT </s> -0.3010
-0.3010 MUSIC PLAYER 0.0000
-0.3010 NEW E-MAIL 0.0000
-0.7782 OPEN BROWSER 0.0000
-0.7782 OPEN CALENDAR 0.0000
-0.7782 OPEN MUSIC 0.0000
-0.3010 OPTIONS </s> -0.3010
-0.3010 PLAYER </s> -0.3010
-0.3010 SHOW OPTIONS 0.0000

\3-grams:
-0.3010 <s> EXIT </s>
-0.3010 <s> NEW E-MAIL
-0.7782 <s> OPEN BROWSER
-0.7782 <s> OPEN CALENDAR
-0.7782 <s> OPEN MUSIC
-0.3010 <s> SHOW OPTIONS
-0.3010 MUSIC PLAYER </s>
-0.3010 NEW E-MAIL </s>
-0.3010 OPEN BROWSER </s>
-0.3010 OPEN CALENDAR </s>
-0.3010 OPEN MUSIC PLAYER
-0.3010 SHOW OPTIONS </s>

\end\
